digraph Tree {
node [shape=box, style="filled, rounded", color="black", fontname=helvetica] ;
edge [fontname=helvetica] ;
0 [label="X[181] <= 2.2\ngini = 0.42\nsamples = 228\nvalue = [161, 67]", fillcolor="#e5813995"] ;
1 [label="X[140] <= 2.28\ngini = 0.29\nsamples = 178\nvalue = [147, 31]", fillcolor="#e58139c9"] ;
0 -> 1 [labeldistance=2.5, labelangle=45, headlabel="True"] ;
2 [label="X[158] <= 1.06\ngini = 0.16\nsamples = 116\nvalue = [106, 10]", fillcolor="#e58139e7"] ;
1 -> 2 ;
3 [label="gini = 0.03\nsamples = 78\nvalue = [77, 1]", fillcolor="#e58139fc"] ;
2 -> 3 ;
4 [label="gini = 0.36\nsamples = 38\nvalue = [29, 9]", fillcolor="#e58139b0"] ;
2 -> 4 ;
5 [label="X[200] <= 4.79\ngini = 0.45\nsamples = 62\nvalue = [41, 21]", fillcolor="#e581397c"] ;
1 -> 5 ;
6 [label="gini = 0.4\nsamples = 55\nvalue = [40, 15]", fillcolor="#e581399f"] ;
5 -> 6 ;
7 [label="gini = 0.24\nsamples = 7\nvalue = [1, 6]", fillcolor="#399de5d4"] ;
5 -> 7 ;
8 [label="X[134] <= 1.06\ngini = 0.4\nsamples = 50\nvalue = [14, 36]", fillcolor="#399de59c"] ;
0 -> 8 [labeldistance=2.5, labelangle=-45, headlabel="False"] ;
9 [label="X[140] <= 1.24\ngini = 0.32\nsamples = 5\nvalue = [4, 1]", fillcolor="#e58139bf"] ;
8 -> 9 ;
10 [label="gini = 0.0\nsamples = 3\nvalue = [3, 0]", fillcolor="#e58139ff"] ;
9 -> 10 ;
11 [label="gini = 0.5\nsamples = 2\nvalue = [1, 1]", fillcolor="#e5813900"] ;
9 -> 11 ;
12 [label="X[11] <= 1.44\ngini = 0.35\nsamples = 45\nvalue = [10, 35]", fillcolor="#399de5b6"] ;
8 -> 12 ;
13 [label="gini = 0.0\nsamples = 1\nvalue = [1, 0]", fillcolor="#e58139ff"] ;
12 -> 13 ;
14 [label="gini = 0.33\nsamples = 44\nvalue = [9, 35]", fillcolor="#399de5bd"] ;
12 -> 14 ;
}