digraph Tree {
node [shape=box, style="filled, rounded", color="black", fontname=helvetica] ;
edge [fontname=helvetica] ;
0 [label="X[54] <= 2.48\ngini = 0.5\nsamples = 257\nvalue = [128.5, 128.5]", fillcolor="#ffffff"] ;
1 [label="X[35] <= 0.21\ngini = 0.49\nsamples = 200\nvalue = [124.22, 96.8]", fillcolor="#f9e3d3"] ;
0 -> 1 [labeldistance=2.5, labelangle=45, headlabel="True"] ;
2 [label="X[38] <= 1.68\ngini = 0.29\nsamples = 55\nvalue = [89.95, 19.25]", fillcolor="#eb9c63"] ;
1 -> 2 ;
3 [label="gini = 0.23\nsamples = 41\nvalue = [81.38, 12.45]", fillcolor="#e99457"] ;
2 -> 3 ;
4 [label="gini = 0.49\nsamples = 14\nvalue = [8.57, 6.79]", fillcolor="#fae5d6"] ;
2 -> 4 ;
5 [label="X[68] <= 2.0\ngini = 0.43\nsamples = 145\nvalue = [34.27, 77.55]", fillcolor="#90c8f0"] ;
1 -> 5 ;
6 [label="gini = 0.45\nsamples = 124\nvalue = [34.27, 65.67]", fillcolor="#a0d0f3"] ;
5 -> 6 ;
7 [label="gini = 0.0\nsamples = 21\nvalue = [0.0, 11.89]", fillcolor="#399de5"] ;
5 -> 7 ;
8 [label="X[64] <= 2.59\ngini = 0.21\nsamples = 57\nvalue = [4.28, 31.7]", fillcolor="#54aae9"] ;
0 -> 8 [labeldistance=2.5, labelangle=-45, headlabel="False"] ;
9 [label="gini = -0.0\nsamples = 52\nvalue = [0.0, 29.44]", fillcolor="#399de5"] ;
8 -> 9 ;
10 [label="X[46] <= 3.44\ngini = 0.45\nsamples = 5\nvalue = [4.28, 2.26]", fillcolor="#f3c4a2"] ;
8 -> 10 ;
11 [label="gini = 0.0\nsamples = 1\nvalue = [4.28, 0.0]", fillcolor="#e58139"] ;
10 -> 11 ;
12 [label="gini = -0.0\nsamples = 4\nvalue = [0.0, 2.26]", fillcolor="#399de5"] ;
10 -> 12 ;
}