digraph Tree {
node [shape=box, style="filled, rounded", color="black", fontname=helvetica] ;
edge [fontname=helvetica] ;
0 [label="X[29] <= 1.76\ngini = 0.5\nsamples = 257\nvalue = [128.5, 128.5]", fillcolor="#ffffff"] ;
1 [label="X[50] <= 1.4\ngini = 0.48\nsamples = 176\nvalue = [128.5, 82.65]", fillcolor="#f6d2b8"] ;
0 -> 1 [labeldistance=2.5, labelangle=45, headlabel="True"] ;
2 [label="X[0] <= 1.59\ngini = 0.4\nsamples = 108\nvalue = [119.93, 45.29]", fillcolor="#efb184"] ;
1 -> 2 ;
3 [label="X[18] <= 0.01\ngini = 0.34\nsamples = 87\nvalue = [119.93, 33.4]", fillcolor="#eca470"] ;
2 -> 3 ;
4 [label="X[27] <= 0.67\ngini = 0.5\nsamples = 16\nvalue = [8.57, 7.93]", fillcolor="#fdf6f0"] ;
3 -> 4 ;
5 [label="X[78] <= 0.05\ngini = 0.45\nsamples = 10\nvalue = [8.57, 4.53]", fillcolor="#f3c4a2"] ;
4 -> 5 ;
6 [label="gini = 0.33\nsamples = 6\nvalue = [8.57, 2.26]", fillcolor="#eca26d"] ;
5 -> 6 ;
7 [label="gini = 0.0\nsamples = 4\nvalue = [0.0, 2.26]", fillcolor="#399de5"] ;
5 -> 7 ;
8 [label="X[28] <= 2.27\ngini = 0.0\nsamples = 6\nvalue = [0.0, 3.4]", fillcolor="#399de5"] ;
4 -> 8 ;
9 [label="gini = 0.0\nsamples = 3\nvalue = [0.0, 1.7]", fillcolor="#399de5"] ;
8 -> 9 ;
10 [label="gini = 0.0\nsamples = 3\nvalue = [0.0, 1.7]", fillcolor="#399de5"] ;
8 -> 10 ;
11 [label="X[72] <= 0.4\ngini = 0.3\nsamples = 71\nvalue = [111.37, 25.47]", fillcolor="#eb9e66"] ;
3 -> 11 ;
12 [label="X[80] <= 0.07\ngini = 0.23\nsamples = 52\nvalue = [102.8, 15.85]", fillcolor="#e99458"] ;
11 -> 12 ;
13 [label="gini = 0.4\nsamples = 31\nvalue = [34.27, 13.02]", fillcolor="#efb184"] ;
12 -> 13 ;
14 [label="gini = 0.08\nsamples = 21\nvalue = [68.53, 2.83]", fillcolor="#e68641"] ;
12 -> 14 ;
15 [label="X[45] <= 4.21\ngini = 0.5\nsamples = 19\nvalue = [8.57, 9.62]", fillcolor="#e9f4fc"] ;
11 -> 15 ;
16 [label="gini = 0.46\nsamples = 15\nvalue = [4.28, 7.93]", fillcolor="#a4d2f3"] ;
15 -> 16 ;
17 [label="gini = 0.41\nsamples = 4\nvalue = [4.28, 1.7]", fillcolor="#efb388"] ;
15 -> 17 ;
18 [label="X[70] <= 0.44\ngini = 0.0\nsamples = 21\nvalue = [0.0, 11.89]", fillcolor="#399de5"] ;
2 -> 18 ;
19 [label="gini = 0.0\nsamples = 15\nvalue = [0.0, 8.49]", fillcolor="#399de5"] ;
18 -> 19 ;
20 [label="gini = 0.0\nsamples = 6\nvalue = [0.0, 3.4]", fillcolor="#399de5"] ;
18 -> 20 ;
21 [label="X[50] <= 3.59\ngini = 0.3\nsamples = 68\nvalue = [8.57, 37.36]", fillcolor="#66b3eb"] ;
1 -> 21 ;
22 [label="gini = 0.0\nsamples = 32\nvalue = [0.0, 18.11]", fillcolor="#399de5"] ;
21 -> 22 ;
23 [label="X[54] <= 1.05\ngini = 0.43\nsamples = 36\nvalue = [8.57, 19.25]", fillcolor="#91c9f1"] ;
21 -> 23 ;
24 [label="X[71] <= 1.41\ngini = 0.5\nsamples = 19\nvalue = [8.57, 9.62]", fillcolor="#e9f4fc"] ;
23 -> 24 ;
25 [label="X[61] <= 1.79\ngini = 0.49\nsamples = 13\nvalue = [8.57, 6.23]", fillcolor="#f8ddc9"] ;
24 -> 25 ;
26 [label="gini = 0.41\nsamples = 8\nvalue = [8.57, 3.4]", fillcolor="#efb388"] ;
25 -> 26 ;
27 [label="gini = 0.0\nsamples = 5\nvalue = [0.0, 2.83]", fillcolor="#399de5"] ;
25 -> 27 ;
28 [label="X[45] <= 1.58\ngini = 0.0\nsamples = 6\nvalue = [0.0, 3.4]", fillcolor="#399de5"] ;
24 -> 28 ;
29 [label="gini = 0.0\nsamples = 1\nvalue = [0.0, 0.57]", fillcolor="#399de5"] ;
28 -> 29 ;
30 [label="gini = 0.0\nsamples = 5\nvalue = [0.0, 2.83]", fillcolor="#399de5"] ;
28 -> 30 ;
31 [label="gini = 0.0\nsamples = 17\nvalue = [0.0, 9.62]", fillcolor="#399de5"] ;
23 -> 31 ;
32 [label="X[51] <= 3.6\ngini = 0.0\nsamples = 81\nvalue = [0.0, 45.85]", fillcolor="#399de5"] ;
0 -> 32 [labeldistance=2.5, labelangle=-45, headlabel="False"] ;
33 [label="gini = 0.0\nsamples = 49\nvalue = [0.0, 27.74]", fillcolor="#399de5"] ;
32 -> 33 ;
34 [label="gini = 0.0\nsamples = 32\nvalue = [0.0, 18.11]", fillcolor="#399de5"] ;
32 -> 34 ;
}